10 256
Europe 0.6756616234779358 -0.23768186569213867 0.06894449889659882 0.037623561918735504 0.8458189964294434 -1.1261240243911743 -0.03500382602214813 0.29691022634506226 0.2142065018415451 -1.464002013206482 0.17972174286842346 -0.3191826343536377 -0.36142221093177795 0.6744458675384521 0.6040022969245911 -0.20372267067432404 -1.4030002355575562 -1.0845760107040405 -0.09117347002029419 1.431192398071289 -0.5518264174461365 -0.8913213014602661 -0.04260368272662163 -0.9455171227455139 -0.9273387789726257 0.3647018074989319 0.7313621044158936 -0.17073416709899902 -0.09491118788719177 -1.0894854068756104 -0.3431834280490875 -0.5868581533432007 -0.5832319259643555 -0.8833605051040649 1.7763876914978027 0.5809325575828552 -0.6764463186264038 0.45806825160980225 1.0531703233718872 0.3406486213207245 0.4780493676662445 0.6524356603622437 0.09046638011932373 -0.8196571469306946 -0.18648219108581543 1.0569336414337158 -0.669145405292511 -0.1664770394563675 -0.01602512039244175 0.4777289628982544 -1.0351217985153198 -0.592117428779602 0.4464942514896393 0.14327414333820343 1.379787564277649 -0.3903992474079132 0.6059432625770569 -0.2688407301902771 0.5399177074432373 0.3224852383136749 -0.1324760466814041 -0.0570434033870697 -0.9765544533729553 0.17880986630916595 0.7280348539352417 0.015411093831062317 -0.6722222566604614 -0.04284350946545601 -0.4096348285675049 2.069586753845215 -0.773265540599823 0.06636437773704529 1.2392621040344238 0.6114798784255981 -1.0424880981445312 -0.3997703194618225 0.9909929037094116 -1.2016252279281616 1.2301381826400757 0.32328638434410095 -1.0617547035217285 -0.28121790289878845 0.3607741892337799 -0.1667805314064026 -0.9558948874473572 -0.9654718637466431 1.573048710823059 0.21555779874324799 -0.8672442436218262 -0.06297242641448975 -0.5361209511756897 1.6274880170822144 0.3949407935142517 1.193196415901184 0.9274234175682068 0.38570913672447205 0.5316985249519348 -0.7599673271179199 0.3329375684261322 -1.144173502922058 -0.14778439700603485 -0.821993887424469 0.3878866136074066 1.356633186340332 -0.8524892330169678 0.9149609208106995 1.004620909690857 -0.5344259738922119 -0.6662197709083557 -0.5424473881721497 0.3277443051338196 -0.6657777428627014 -0.08053726702928543 0.5631569623947144 0.9459131956100464 -0.43610045313835144 -0.11419998109340668 -1.0499472618103027 0.09800643473863602 -0.11693087220191956 -0.6310523152351379 -0.615847647190094 0.2834457755088806 -0.9728149175643921 -0.1999298632144928 -1.1010746955871582 0.6903886795043945 0.38403987884521484 1.723394751548767 -0.2858787477016449 -0.9871194362640381 1.0429394245147705 0.3520171046257019 0.183204784989357 -0.4027518332004547 -0.4391428232192993 -0.42552077770233154 -0.7216234803199768 0.19334401190280914 -0.17905201017856598 -0.13871799409389496 -0.8449165225028992 1.8565586805343628 0.7066023945808411 0.43853893876075745 1.1727149486541748 -0.962506890296936 -0.259977787733078 -0.06279207020998001 0.31986695528030396 -1.454306721687317 0.22942864894866943 -0.0526815727353096 0.03342971205711365 0.32175782322883606 -0.6480287313461304 0.4803808331489563 -1.666899561882019 1.005409598350525 -0.6131307482719421 0.9534765481948853 -0.3964676260948181 1.40445876121521 0.22247447073459625 -0.9276318550109863 -1.066689133644104 -0.7264915704727173 0.4792044758796692 0.1532076895236969 0.48092156648635864 0.8533872365951538 -0.08901099860668182 -0.1864616572856903 0.7801337242126465 0.4416953921318054 -0.058427631855010986 -1.9719243049621582 0.14364086091518402 -0.02621425688266754 -0.7986006140708923 -0.5314984917640686 -0.6331192255020142 -0.9295103549957275 -0.8868789076805115 0.6330431699752808 0.3675330579280853 -1.2057392597198486 -0.4040052592754364 -1.8627495765686035 0.01479335967451334 0.2681141793727875 0.6318460702896118 -1.2500791549682617 1.0447978973388672 1.0179327726364136 0.7922888994216919 -0.3628901243209839 0.09401489794254303 0.20845942199230194 -0.49491214752197266 0.17449025809764862 -0.331635057926178 1.099336862564087 -0.49653491377830505 -0.1395203173160553 1.4598497152328491 0.045843496918678284 -0.9750890731811523 0.7026256322860718 -1.0570909976959229 -0.12682712078094482 1.2056423425674438 0.9175531268119812 0.8707306385040283 -1.8583581447601318 -0.49718791246414185 0.6329923868179321 0.06727322936058044 -0.551305890083313 -0.40439310669898987 0.8776543736457825 0.1067996621131897 0.6682247519493103 -0.5771770477294922 -1.1542868614196777 0.3472115397453308 -0.9690383672714233 -1.0448644161224365 -0.22518622875213623 -0.8654674887657166 -0.6815924048423767 0.2233732044696808 -0.1521790474653244 -0.2013060748577118 -0.9491646885871887 -1.1521377563476562 -1.5503875017166138 -0.4048154950141907 0.32079145312309265 -0.020699098706245422 -0.5002245903015137 -1.0957305431365967 0.7159409523010254 -1.1918226480484009 0.24368229508399963 -1.8335233926773071 -1.270004153251648 0.18041479587554932 -0.5220491886138916 -0.40661337971687317 -1.2366193532943726 -0.6667540073394775 0.06208984553813934 1.1354635953903198 -0.9787601232528687 0.4772421717643738
India 0.5527439713478088 1.311444640159607 0.05072205141186714 -1.5088112354278564 -0.5072230100631714 -0.7503982186317444 0.6513151526451111 1.2162190675735474 0.7321392893791199 -0.22333037853240967 2.215177536010742 -0.06470954418182373 -1.2713090181350708 -0.06731042265892029 -0.768792450428009 0.347790002822876 -1.5779322385787964 1.2354830503463745 0.5272938013076782 0.38882026076316833 -0.16655993461608887 -0.47765129804611206 1.2872344255447388 0.8685893416404724 -1.3905819654464722 -1.192623257637024 -0.8962313532829285 0.19815483689308167 0.8428874015808105 0.1855868548154831 -0.09022493660449982 -0.38412922620773315 1.0505369901657104 -0.01879548281431198 1.4349666833877563 1.735482931137085 -0.5320361852645874 -0.3652805685997009 -0.6467399001121521 -1.1215853691101074 0.2263469696044922 0.08894504606723785 -0.682979941368103 1.489128828048706 1.8458240032196045 0.7060009241104126 -0.6858410239219666 -1.4447671175003052 -0.14934949576854706 -1.4288333654403687 -2.446950912475586 -0.05945533886551857 0.668876051902771 0.5658571720123291 1.19484281539917 -1.4020944833755493 -0.10428138077259064 0.9291841387748718 0.789459764957428 -0.2975761592388153 -0.7321509718894958 -0.9342448711395264 -1.6683576107025146 -0.5828658938407898 0.8868051171302795 -2.2918615341186523 -0.1260988861322403 0.7759862542152405 0.09179888665676117 0.3454727828502655 -3.000786781311035 -0.7223905920982361 -0.4308321475982666 -0.9672109484672546 -0.6345800161361694 0.5627852082252502 0.5011154413223267 -0.24019841849803925 0.1817997694015503 -0.5881957411766052 -0.496889591217041 -0.49324455857276917 0.1961645632982254 0.5665304660797119 0.954008162021637 -1.5086427927017212 0.8140395879745483 0.003929737024009228 -0.8231603503227234 -0.8218395709991455 -0.2847640812397003 0.552123486995697 -0.28309792280197144 0.5982668995857239 1.079787015914917 -0.5920448303222656 0.5687638521194458 -0.2958928644657135 0.43359261751174927 -0.19067765772342682 -0.8221997618675232 -1.680180549621582 0.28578221797943115 1.5574041604995728 -0.7323919534683228 0.21507376432418823 0.9858237504959106 -1.440000057220459 -0.21558396518230438 0.0769430473446846 0.11898171901702881 0.7871050834655762 -1.1661789417266846 0.8573616147041321 -0.5210753679275513 -0.3930913805961609 -0.3966811001300812 -0.4238116145133972 -0.672473132610321 -0.671292781829834 -0.7075942158699036 -0.5829231142997742 -0.3568255305290222 -0.8133493065834045 -0.3695831894874573 -0.29061466455459595 1.7946218252182007 0.6684845685958862 -0.28201067447662354 -0.6585955023765564 -0.3376786410808563 -0.7826163172721863 -0.08069924265146255 -0.3730372190475464 0.2516365051269531 2.1348302364349365 -0.9844498634338379 -0.9692691564559937 1.3636205196380615 -1.3591234683990479 0.17252817749977112 -0.05611638352274895 1.9445973634719849 0.3266526460647583 0.24965648353099823 0.20917758345603943 -1.1373847723007202 0.21780478954315186 -1.353489875793457 -0.8909022212028503 -2.1556777954101562 -0.0930081307888031 0.16592161357402802 -0.6911998987197876 -0.1114349439740181 -0.7677915096282959 0.8933128118515015 -0.5704912543296814 0.9581806659698486 0.6750794649124146 0.17372050881385803 -1.2769103050231934 0.03236846253275871 -0.6195945739746094 0.2892172336578369 -0.3298135995864868 0.42066118121147156 0.6283758878707886 0.0883883535861969 0.25325512886047363 1.2121351957321167 1.7098535299301147 0.39187365770339966 0.8991098999977112 1.1422284841537476 0.17392998933792114 -0.44476157426834106 0.3442336320877075 -1.0346589088439941 -0.9649531841278076 -0.8648753762245178 0.9522273540496826 0.023671813309192657 -1.1734974384307861 -1.1294257640838623 -0.21690097451210022 -0.7357774972915649 -0.007716648280620575 -1.3990302085876465 0.4593191146850586 1.1743214130401611 -0.007284287363290787 -1.0773166418075562 1.977674961090088 -0.24674957990646362 -0.1990266740322113 -0.16801303625106812 -1.0155982971191406 1.2709944248199463 -0.14155857264995575 -0.1726645529270172 -1.438417673110962 -0.36953502893447876 0.975602924823761 1.625468134880066 1.9308226108551025 -0.8330085277557373 0.25396162271499634 0.7034295797348022 -1.6190251111984253 -0.710971474647522 0.406171590089798 1.8665200471878052 0.1800791621208191 -0.8822660446166992 0.32921093702316284 -0.3477851450443268 -0.5842506289482117 0.2242237627506256 -0.4922903776168823 1.5055041313171387 0.9418665766716003 1.456499457359314 -0.7176617980003357 -0.4723646640777588 1.050758719444275 -1.2903181314468384 0.5020423531532288 0.2628072202205658 -0.9453721046447754 -0.8440982699394226 -1.3151016235351562 -0.5306634306907654 1.3283969163894653 -0.5646625757217407 -0.40709948539733887 -0.7942924499511719 1.4063084125518799 -0.35153770446777344 0.8484222292900085 -0.887808084487915 -0.6415587663650513 0.6662083268165588 0.025937877595424652 -0.06543653458356857 -1.39553964138031 -1.635345458984375 -0.2771870493888855 -0.8582688570022583 -0.9622563123703003 -0.887079119682312 -0.7090479135513306 -1.2617031335830688 1.2779161930084229 -0.5983970165252686 -0.5682759284973145
Christianity 1.1643931865692139 -0.15472690761089325 0.694326639175415 0.06139644607901573 -0.24345014989376068 -0.7670310735702515 0.8374154567718506 0.7636941075325012 1.2168129682540894 -0.07284091413021088 0.05930796638131142 0.6741220355033875 1.037551999092102 1.0251431465148926 0.28309547901153564 -1.153293251991272 -1.6944797039031982 1.0758072137832642 0.3244032561779022 0.16507449746131897 -0.8555183410644531 0.11344800889492035 0.5533839464187622 -0.8241745829582214 0.23941397666931152 -1.6628438234329224 -0.009696073830127716 -0.3302808105945587 0.6379022002220154 0.2560739815235138 1.00281822681427 -0.166290283203125 -1.506468415260315 0.46921926736831665 0.9261776804924011 0.6019852161407471 -0.04360348731279373 0.3940570652484894 0.8131273984909058 -0.568027675151825 0.5650569796562195 0.6627787947654724 -0.8726582527160645 -0.21141864359378815 -0.39006733894348145 -0.0062162987887859344 -1.405397891998291 -0.10922212153673172 0.3314162492752075 -0.29990845918655396 -0.08201734721660614 -0.19316723942756653 0.1189817488193512 0.6544772982597351 1.698973536491394 -0.1598845273256302 0.34947288036346436 0.37062573432922363 -0.8230794668197632 -0.11285276710987091 0.25820282101631165 -0.22884580492973328 -0.7508655190467834 -0.428661972284317 -0.007828433066606522 0.163206085562706 0.8854758143424988 0.21393519639968872 0.021102488040924072 0.04251723736524582 -2.411086320877075 0.010317128151655197 -0.18069010972976685 -0.4083714485168457 0.38443684577941895 1.2280967235565186 0.9941427111625671 -0.6318235993385315 0.3061040937900543 0.09831561893224716 0.1352810561656952 0.2693738639354706 1.1535803079605103 0.5478704571723938 -0.5273529291152954 -1.32011079788208 1.3869163990020752 0.5013206601142883 0.07285722345113754 -0.6061586141586304 0.05770028382539749 1.9235011339187622 0.022463440895080566 0.8064495325088501 -0.06634622812271118 -0.12162980437278748 1.5218602418899536 -0.4444825053215027 -0.13619191944599152 -0.9117097854614258 -0.7983488440513611 -0.5214018821716309 1.5492736101150513 1.9083304405212402 -0.8265455365180969 1.7060128450393677 -0.12464772164821625 -0.981482982635498 -0.013778160326182842 0.26283690333366394 0.23716288805007935 -0.03266233578324318 -0.0885770320892334 1.2483384609222412 1.0808151960372925 -0.9382598400115967 0.04113679751753807 -0.13937421143054962 0.6384336352348328 -1.1609776020050049 -0.7308513522148132 -1.053220272064209 -0.0795418918132782 0.03387218341231346 -0.24668391048908234 0.023866161704063416 1.7597761154174805 0.05837313458323479 0.5789227485656738 -0.16498976945877075 -0.5340913534164429 0.1124725490808487 0.8619279265403748 0.23863641917705536 -0.4815348982810974 -0.1795687973499298 -0.4732476770877838 -1.1147031784057617 1.2063474655151367 -1.606708288192749 0.664964497089386 -1.5185723304748535 0.9236437678337097 -0.26260262727737427 0.7394363880157471 0.5727632641792297 0.07006822526454926 0.7763209939002991 -0.6556283831596375 -0.11066219210624695 -0.9037414193153381 0.24233883619308472 1.4409512281417847 0.6747127771377563 0.045607343316078186 -0.6118034720420837 1.2950388193130493 -1.8660012483596802 -0.8235597014427185 -0.4379562437534332 1.024214267730713 -0.11746348440647125 -0.42094817757606506 -0.5059513449668884 -0.36110150814056396 -0.2448815107345581 0.5257954597473145 0.31841105222702026 0.9683347344398499 0.8527176380157471 0.6474992632865906 0.4683656692504883 -0.20040065050125122 0.9124956130981445 0.306237131357193 -0.13613693416118622 -0.8510995507240295 0.6390640735626221 -0.36931341886520386 -1.7548134326934814 -0.39150285720825195 0.5335842967033386 0.7748425602912903 -0.9706483483314514 0.6348462104797363 -0.5547165274620056 -1.0384106636047363 -0.42780405282974243 -0.9082673788070679 -1.2155722379684448 0.5004737377166748 -0.35590317845344543 -0.7886385321617126 1.5251116752624512 -0.11060287058353424 1.0026917457580566 1.4909391403198242 0.3826692998409271 -0.03866354376077652 -0.8494846224784851 0.5509222745895386 -0.20127460360527039 1.3119943141937256 1.0937937498092651 0.09757907688617706 0.7911031246185303 -0.030151069164276123 -0.9224510192871094 0.42396819591522217 -2.436112642288208 0.04760501906275749 1.220902442932129 1.0516763925552368 0.7206984162330627 -0.9491793513298035 -0.47859179973602295 -1.7673556804656982 -1.5479310750961304 -0.36810195446014404 -0.921116054058075 0.729164183139801 0.22525161504745483 1.0273141860961914 -0.8695183992385864 0.20893526077270508 -0.16802413761615753 -1.277521014213562 -0.31444787979125977 -0.5889525413513184 0.15371303260326385 -0.21985745429992676 -0.10066833347082138 0.7472682595252991 0.2800025939941406 -0.6605801582336426 -0.2084515392780304 -0.15812909603118896 -0.2888633608818054 0.9888566136360168 0.13821175694465637 -0.8831111788749695 -1.076211929321289 -0.35019758343696594 -0.3747009038925171 0.2381230890750885 -0.49185633659362793 -0.9479739665985107 -0.36137300729751587 0.04840747267007828 -0.4405486285686493 -0.23123550415039062 0.40665435791015625 0.871405839920044 0.09423419833183289 0.43580150604248047 1.6692405939102173
European_Union 1.1831365823745728 0.5442987084388733 -0.21566444635391235 -0.5858058929443359 0.9314955472946167 -0.575160562992096 0.9164291620254517 -0.29176175594329834 0.3481466472148895 -1.5997382402420044 0.5247429013252258 -0.2613750994205475 -0.7036396861076355 0.3770236372947693 -0.563491702079773 -1.3576273918151855 -1.2102681398391724 -0.6182731986045837 0.11580543220043182 0.48123735189437866 -0.7131872773170471 -0.709744930267334 1.1188199520111084 -0.9937061667442322 -0.4976854920387268 -2.1255671977996826 -0.3672754466533661 0.35387519001960754 0.02725408598780632 -0.13918553292751312 -0.2623079717159271 0.06387242674827576 -0.8398754000663757 0.3540627360343933 0.26988473534584045 -0.13371063768863678 0.24243643879890442 0.3739470839500427 1.299060344696045 -0.8606950640678406 0.3567308485507965 0.6217626333236694 -0.11971651017665863 0.1977691352367401 0.12972354888916016 1.0060361623764038 -0.04673486948013306 -1.2601317167282104 -0.15173490345478058 -0.8894340395927429 -0.6052469611167908 -0.6224465370178223 0.5219162106513977 0.33811044692993164 0.5973072648048401 -0.7257714867591858 -0.5501483678817749 -0.553096354007721 0.12455690652132034 0.14034803211688995 -0.22351986169815063 -0.4262807369232178 0.4257288873195648 0.8794562816619873 1.0453797578811646 0.846598207950592 -1.0916391611099243 -0.9772894382476807 0.2937083840370178 1.6953409910202026 -0.44439101219177246 0.4330901503562927 0.7420043349266052 0.5290142297744751 -0.992151141166687 0.5777227878570557 0.8878143429756165 -0.5506476759910583 -0.38498997688293457 -0.1710907518863678 0.04274457320570946 -0.5671606063842773 0.4875669479370117 -0.6333612203598022 -0.9147596955299377 -0.6096097230911255 1.5368622541427612 0.39717987179756165 -1.1311758756637573 0.9698365926742554 -0.9182156920433044 1.427473545074463 -0.4348103404045105 1.2302768230438232 -0.1695026159286499 -0.5621572136878967 0.6550695300102234 -0.6587244868278503 0.38931769132614136 -1.0701038837432861 -0.3672502636909485 -0.24265480041503906 1.1976783275604248 1.6294267177581787 -0.7366317510604858 0.6709416508674622 1.2177926301956177 -0.3418692350387573 -1.3536243438720703 0.5229538679122925 -0.08082898706197739 -0.08364047855138779 0.08055242896080017 -0.24018917977809906 0.8406419157981873 -0.006224844139069319 -0.05725924298167229 -0.32932284474372864 0.5318684577941895 -0.8109800815582275 -0.7901434898376465 -0.14105039834976196 0.2899578809738159 -0.7854329943656921 0.19370107352733612 0.6299383640289307 1.7182646989822388 0.9556397795677185 1.4053218364715576 -0.9644461274147034 -0.46218615770339966 0.08831766247749329 -0.11674720793962479 -0.6553425788879395 -0.28327125310897827 -0.8170251250267029 -0.6345837116241455 -0.25878119468688965 0.7314398884773254 -1.0716195106506348 0.970842719078064 0.0050291940569877625 1.5398832559585571 0.4540296494960785 1.3760582208633423 0.2865888178348541 -0.24178890883922577 -0.3428645730018616 -0.7255640029907227 -0.16129404306411743 -1.0749342441558838 -0.36213961243629456 0.8156241774559021 -0.6081827282905579 -0.8780756592750549 0.14437690377235413 0.15751121938228607 -0.9503588676452637 0.5159977078437805 -0.7200103402137756 0.7794508337974548 -1.6324799060821533 -0.8169989585876465 -0.6639419198036194 -0.7732621431350708 -1.3813745975494385 -0.6666332483291626 -1.0586225986480713 0.581806480884552 0.25497108697891235 0.46117764711380005 0.9887382984161377 0.2477656751871109 0.19127097725868225 0.16847768425941467 0.0593622624874115 -1.7165606021881104 0.11273521184921265 0.42818406224250793 -1.9593828916549683 -0.9567038416862488 0.9257791042327881 -0.380092978477478 -0.8743501901626587 -0.47314807772636414 -0.5181650519371033 0.37378454208374023 -0.7998355627059937 -0.9345791339874268 1.1729450225830078 -0.44288599491119385 0.7032037973403931 -0.5760714411735535 0.35495638847351074 -1.325670599937439 -0.14814265072345734 0.7413962483406067 -0.3438117504119873 1.454256296157837 -0.4136658310890198 0.7207435369491577 0.23242971301078796 -0.1077941507101059 -0.12355400621891022 0.8890228271484375 0.4552519619464874 -0.5929845571517944 -0.8992000222206116 0.2574574649333954 -1.6410480737686157 -0.26907604932785034 0.8058216571807861 1.9472764730453491 -0.3482710123062134 -0.28976520895957947 -0.4318678677082062 -1.676304817199707 -0.19371932744979858 0.5796882510185242 -1.6492451429367065 0.31387218832969666 -0.07883743941783905 1.2228989601135254 -0.4999915361404419 -0.08113590627908707 -0.5400878190994263 -1.9195576906204224 -0.15688753128051758 -1.587563395500183 -0.2531280219554901 0.3088379502296448 1.4109290838241577 1.0126765966415405 0.3965911567211151 0.36328181624412537 -0.32574039697647095 -0.20456357300281525 0.38028809428215027 -0.6745046973228455 0.6072197556495667 -0.4923582375049591 -1.259458065032959 0.03735228255391121 -0.4045293629169464 -0.13698343932628632 -0.16458439826965332 -0.2686566114425659 0.701980471611023 -0.4370291233062744 0.6491601467132568 -0.9600769281387329 -0.5256383419036865 -0.18368172645568848 0.8813725709915161 0.05253482609987259 1.3717035055160522
Encyclopædia_Britannica 0.7555373907089233 -1.2260998487472534 0.12118828296661377 -0.4808213710784912 1.2540820837020874 -0.771710216999054 2.0324137210845947 -0.6243670582771301 -0.13837186992168427 -1.915190577507019 -0.5831490159034729 1.7057054042816162 0.12306907027959824 1.1373857259750366 0.17709580063819885 -1.9417909383773804 -1.5353610515594482 0.4183361232280731 -0.5421720743179321 -0.014187877997756004 -1.318606972694397 0.9158023595809937 1.1633033752441406 -0.23958459496498108 -1.2181912660598755 -1.117476224899292 0.5063467025756836 -0.3110874593257904 0.2609281837940216 -0.8133413791656494 -0.6142489910125732 -0.3646034896373749 -0.5521954298019409 -0.8787367343902588 2.4024486541748047 2.039060592651367 -0.7237990498542786 0.13224580883979797 0.8346086144447327 -0.678872287273407 0.4058484435081482 0.7116657495498657 -1.3483901023864746 0.9783756732940674 2.6083037853240967 0.4853580594062805 -0.9429191946983337 -0.5747923254966736 0.2068507969379425 0.11703386902809143 0.07921901345252991 -2.2730674743652344 1.3241931200027466 0.8237419724464417 1.2320456504821777 0.2316214144229889 1.0186089277267456 0.915276050567627 0.9064903259277344 -0.8411076068878174 -0.04408150911331177 -0.22432196140289307 -2.0821285247802734 -0.09863497316837311 0.961456835269928 -0.7435622811317444 0.6664742827415466 -0.5677937269210815 -0.48811206221580505 0.33202674984931946 -1.9428023099899292 -0.08734655380249023 0.10176198184490204 -0.1143975630402565 -1.874133825302124 1.2296619415283203 1.1085864305496216 -1.1645981073379517 -0.3754681348800659 -0.29873400926589966 -0.9996092319488525 -1.6173779964447021 0.9636779427528381 -1.1224212646484375 -0.9802914261817932 0.283010333776474 2.585859775543213 0.585504949092865 -0.9623876214027405 0.6254154443740845 -0.42489850521087646 1.7010189294815063 -1.2740901708602905 1.2564865350723267 -0.8304774761199951 -1.7448080778121948 1.4489519596099854 -0.11738784611225128 -0.7460051774978638 -1.4444531202316284 -0.8447628617286682 -1.7465579509735107 0.777471661567688 1.9407535791397095 -1.7360703945159912 1.5950536727905273 -0.5336403250694275 -1.0071760416030884 -0.150499626994133 0.7361156940460205 -1.013310194015503 -0.2946299910545349 -0.038889601826667786 1.039685845375061 0.6417427062988281 -0.3198249340057373 -1.121885895729065 0.2410268783569336 1.2496751546859741 -1.6289228200912476 0.4379226565361023 -0.2712240219116211 0.311847060918808 -0.21416987478733063 0.7853090763092041 -0.5578550696372986 1.5361336469650269 -0.29516687989234924 0.4518951177597046 -0.5381665229797363 -0.745434582233429 0.538997232913971 0.8949205875396729 0.7790169715881348 0.3374864459037781 -0.7458477020263672 -1.0316518545150757 -0.8015797734260559 0.5251715183258057 -0.20415939390659332 -0.683285117149353 -1.562998652458191 1.3340619802474976 0.5085129737854004 -0.35423579812049866 -0.24079720675945282 0.9922350645065308 -0.5904799699783325 0.593041718006134 -0.5459344387054443 -0.6336065530776978 0.45236217975616455 0.43863925337791443 -0.1578715592622757 0.5181025266647339 -1.5666321516036987 1.9020580053329468 -1.4055402278900146 0.06349042057991028 1.2239043712615967 0.7707427740097046 -0.8216345906257629 0.7820805311203003 -1.4799898862838745 -1.4884629249572754 0.6299616694450378 -0.7081841826438904 0.21034449338912964 0.17770296335220337 -0.5293015241622925 1.3621917963027954 0.6497603058815002 0.19934019446372986 0.11410364508628845 0.3530397117137909 -1.5484546422958374 -1.4157700538635254 0.5904922485351562 -0.8061791658401489 -0.21364127099514008 -0.1249895989894867 -0.502877950668335 0.12391535937786102 0.37304073572158813 -1.337972640991211 -0.9556365013122559 -0.43179890513420105 -1.241959810256958 -0.2472825050354004 0.5577232837677002 -0.0641847550868988 -0.17787562310695648 -2.562588930130005 1.868665337562561 -1.30703866481781 0.8649781942367554 1.3853368759155273 -0.08357307314872742 2.173799514770508 0.42530930042266846 1.468888282775879 -0.6786419749259949 -0.7613004446029663 -0.3253782093524933 1.4014053344726562 0.11293749511241913 -0.8615553975105286 0.2603375315666199 0.2724815011024475 -0.6438409686088562 0.17014318704605103 -0.3970351219177246 1.3641433715820312 0.6899186968803406 -0.4763405919075012 -0.7510385513305664 -1.1565932035446167 -1.7137724161148071 -0.5033688545227051 -0.12585964798927307 1.803147554397583 1.355980634689331 2.0449140071868896 -0.2969946563243866 0.5694345831871033 0.9596624374389648 -1.1711070537567139 -0.8099679946899414 -1.5178581476211548 -1.037043809890747 -1.0875964164733887 -0.17399749159812927 0.9186819195747375 1.150529146194458 -1.8258148431777954 0.2974553108215332 -1.2896697521209717 0.3825395405292511 -0.713619589805603 0.22746220231056213 -0.4473189115524292 -0.11780917644500732 0.3671918213367462 0.6357797384262085 0.01407601684331894 -0.706091582775116 -0.5522708892822266 0.13348549604415894 -0.7034438252449036 0.34588292241096497 -0.2480524182319641 0.5027170181274414 -0.6401277780532837 0.6596149206161499 0.3368152976036072 -0.7606296539306641
Greek_language 1.0703957080841064 0.8365916609764099 0.015478799119591713 -0.2819693386554718 -0.6826332807540894 -1.1416107416152954 0.6795286536216736 -1.6440818309783936 -0.4441632330417633 -0.40946468710899353 -1.9044263362884521 0.8019260764122009 0.35692501068115234 2.1351821422576904 0.5068046450614929 -1.1379448175430298 -1.5788798332214355 0.06175500899553299 0.4148266315460205 1.649982213973999 -0.8967031240463257 0.5121504664421082 1.9350528717041016 -0.8314321041107178 -0.7214579582214355 -0.6347768306732178 1.4586549997329712 0.5277777910232544 1.6755083799362183 -0.6745392084121704 -0.5012875199317932 -0.06419525295495987 0.32256942987442017 -0.4762050211429596 1.4569411277770996 0.5612763166427612 -1.0148440599441528 1.2830123901367188 1.3526427745819092 -0.9802865386009216 -0.9243968725204468 1.9789940118789673 0.48758959770202637 0.6982454061508179 -0.8785203695297241 -0.3533567190170288 -1.091598391532898 -1.1751327514648438 0.7900776863098145 -1.82456636428833 0.37151461839675903 -0.2538040280342102 -0.4207496643066406 0.04567652940750122 1.5438101291656494 0.8027725219726562 1.4276858568191528 1.4911139011383057 0.26870742440223694 -0.05862925201654434 -0.3445959985256195 -0.11785881221294403 -1.7936707735061646 0.4868089258670807 1.2927098274230957 -1.4795866012573242 0.5652085542678833 1.0472304821014404 0.614881157875061 1.7274529933929443 -2.496861457824707 -0.06817369908094406 0.9055734872817993 0.566009521484375 0.4618481695652008 0.4811646640300751 0.5115342140197754 -0.9350970983505249 1.1882294416427612 -0.7248968482017517 0.08820229023694992 -0.5644274950027466 0.5156792402267456 0.844569981098175 -1.3351184129714966 -0.16212627291679382 0.6491420269012451 0.40939632058143616 -0.8721965551376343 0.01124546304345131 0.19352877140045166 1.1905990839004517 0.676396906375885 0.21886935830116272 -0.9775995016098022 0.5908968448638916 1.4205577373504639 0.242488831281662 0.4767463207244873 -0.6645742654800415 -1.7400846481323242 -1.1613649129867554 1.5545421838760376 1.5710012912750244 -1.4459725618362427 1.3542757034301758 0.08203817903995514 -1.8832148313522339 0.03558232635259628 0.7654678821563721 0.08756604790687561 1.1782060861587524 0.5970287919044495 -0.25327858328819275 1.2340282201766968 -1.3556084632873535 0.2307858020067215 -1.1440807580947876 0.43323248624801636 -1.5291882753372192 0.05934176966547966 -0.13240519165992737 0.07205048203468323 -0.3152320384979248 -0.31070348620414734 -0.7055360078811646 1.4443998336791992 0.5256664156913757 2.319164514541626 -1.1656066179275513 0.6149328947067261 -0.2321431189775467 0.0983612909913063 -0.28897473216056824 0.16427291929721832 -0.3364960849285126 -2.547985315322876 -1.0444976091384888 1.7499042749404907 1.0244102478027344 0.049249328672885895 1.194128394126892 0.7458394765853882 0.7759677171707153 1.221984624862671 -0.3086564242839813 -0.4651539921760559 0.3876228332519531 0.09096725285053253 -0.9444319605827332 -1.7456220388412476 0.7915776968002319 1.012349247932434 -0.9782285690307617 0.27711570262908936 -0.30648666620254517 1.7371788024902344 -1.528511643409729 0.35593050718307495 0.699628472328186 0.4916639029979706 -0.47241461277008057 2.0339362621307373 -0.3715166449546814 -0.6511999368667603 -0.5461404919624329 -1.5634191036224365 -0.7494801878929138 0.4828655421733856 0.02605075016617775 2.8303112983703613 0.5611059665679932 -1.0525710582733154 1.6787211894989014 0.26830294728279114 -0.7607634663581848 -1.5789296627044678 0.6073874831199646 -0.5240880250930786 -1.5321002006530762 -1.159425973892212 0.41641950607299805 -0.965748131275177 -1.23268723487854 -0.1854899376630783 1.540917992591858 0.16488958895206451 -1.3153575658798218 -0.6551365852355957 0.3621801435947418 0.8893496990203857 0.1761012226343155 -0.4982640743255615 1.608302354812622 -0.05369434505701065 1.768137812614441 1.15828275680542 0.9852114915847778 0.6706938743591309 0.5743081569671631 0.2867070734500885 -1.0446668863296509 -1.1287575960159302 1.6973220109939575 1.8812273740768433 1.8875842094421387 -1.7003722190856934 -1.198145866394043 0.4152735471725464 -2.7743351459503174 0.2269776463508606 -0.060424987226724625 1.933353066444397 1.0044384002685547 0.14031824469566345 -0.19299091398715973 -0.01532351691275835 -1.5358401536941528 -0.23961904644966125 -1.412725567817688 0.30731257796287537 0.815390408039093 0.5144013166427612 -1.2972216606140137 -0.35699740052223206 0.7985807061195374 -1.4746297597885132 -0.3314744830131531 -1.0020414590835571 -1.826964259147644 -0.5363766551017761 0.030506744980812073 -1.3433088064193726 -0.18373353779315948 -1.3726478815078735 -0.7735231518745422 -0.4819478988647461 -0.35566431283950806 -1.3280848264694214 1.7516295909881592 0.45831990242004395 -0.4650537073612213 -0.028631504625082016 -1.2721024751663208 -0.5685124397277832 -1.509250521659851 -0.8112809062004089 0.41624897718429565 1.0014317035675049 1.28488290309906 -1.2839055061340332 -0.80251544713974 -1.4118123054504395 -0.032327525317668915 -0.15520194172859192 -0.7082439661026001
French_language -0.1920161247253418 -0.1513407826423645 0.9938746690750122 0.5284734964370728 -0.40931469202041626 -0.6299076676368713 1.5004750490188599 -0.5159063339233398 1.3269299268722534 -0.22316323220729828 -0.054724134504795074 -0.08485585451126099 -0.7768957614898682 0.7560800909996033 0.8462878465652466 -2.181342601776123 -1.2290269136428833 0.3557724058628082 0.3895154893398285 1.557507872581482 -0.086398646235466 -0.16549941897392273 1.9135828018188477 -0.3309398293495178 -0.9372611045837402 -0.4672996997833252 0.8328498601913452 -0.10681954771280289 1.166454553604126 0.38082119822502136 -1.4359042644500732 1.2756444215774536 -1.3122444152832031 -0.27738046646118164 0.9624837636947632 1.0067729949951172 0.6774190068244934 1.0197784900665283 1.1447476148605347 -0.7313008308410645 0.46450376510620117 1.0928375720977783 -0.07446108758449554 -0.5585744976997375 0.9969944357872009 0.7714247703552246 0.46982377767562866 -1.3392666578292847 -0.83441162109375 -1.0096560716629028 -0.39784979820251465 -0.8811183571815491 0.17035312950611115 -1.2013987302780151 0.20169755816459656 -0.08604241907596588 -0.5216193199157715 1.2321770191192627 -0.21636493504047394 -0.24286767840385437 -0.7936429977416992 0.862784743309021 -1.7404171228408813 -1.1079134941101074 0.9829610586166382 -1.0613703727722168 0.8612837195396423 0.32792720198631287 -0.19025614857673645 0.4590349793434143 -1.544242262840271 0.40350374579429626 -0.05812344700098038 -0.013309132307767868 -1.4728996753692627 1.0658930540084839 1.3325070142745972 -0.5096526741981506 1.0195814371109009 -1.506956696510315 -0.2903558313846588 -1.064283847808838 -0.5780125856399536 -1.0303908586502075 0.018228555098176003 -1.4313035011291504 0.28964895009994507 0.9391415119171143 -1.5758976936340332 -0.7480435967445374 0.5545675158500671 2.0877833366394043 -1.5305373668670654 1.2535723447799683 -0.37282565236091614 -0.8951466679573059 1.702318787574768 -1.0754144191741943 -0.1371878981590271 -0.8073061108589172 -0.3377813994884491 -1.2529585361480713 1.0574032068252563 1.9563592672348022 -1.4451080560684204 0.940362811088562 1.532730221748352 -0.6481570601463318 0.14389021694660187 1.1819275617599487 -0.7140422463417053 1.1083439588546753 0.08248157054185867 0.5628235340118408 0.4355759024620056 0.5616965293884277 0.026468932628631592 -0.3107161819934845 0.34320127964019775 -0.4250558018684387 -0.16909927129745483 -0.8053703308105469 1.3059221506118774 -1.002941370010376 -0.3763745129108429 -0.8866222500801086 1.0408170223236084 0.3493747115135193 1.287492036819458 0.05583743005990982 -0.2130771428346634 0.8557265996932983 -0.9487037658691406 -0.8204928636550903 -0.2345515340566635 -0.8377777338027954 -1.7859255075454712 -1.0118414163589478 1.637990117073059 -1.641147494316101 -0.8051983714103699 -0.572979211807251 1.2547664642333984 -0.30926162004470825 -0.8485870957374573 0.42408356070518494 -0.3091253340244293 0.2692318260669708 0.6099315285682678 1.1182358264923096 -0.9820847511291504 0.18696850538253784 0.5932088494300842 -0.8202762007713318 -0.8731333017349243 -0.7567490339279175 1.1935081481933594 0.15539796650409698 0.4978463053703308 -1.2641868591308594 1.6298447847366333 -1.187943458557129 -0.43935322761535645 -0.7582230567932129 -1.0316319465637207 -1.1417577266693115 -0.275948703289032 -0.2541436553001404 -0.6217902302742004 -0.47663599252700806 1.9840450286865234 1.8475438356399536 -0.6083756685256958 1.0848217010498047 -0.21449333429336548 0.04075557738542557 0.10253257304430008 0.6645402312278748 -0.9564616084098816 -0.3484739065170288 -0.43148377537727356 0.9076198935508728 -1.4437984228134155 0.41689690947532654 -0.10607045143842697 0.24194258451461792 -0.2618440091609955 -0.698577880859375 0.15780943632125854 -0.3429838716983795 0.6360908150672913 0.1041448563337326 -2.089296579360962 0.40397676825523376 0.690513014793396 0.7981383800506592 1.4958422183990479 -0.1982133835554123 0.6800145506858826 -0.23706351220607758 0.1951955258846283 -0.08169727027416229 0.8813508152961731 -0.3449223041534424 1.8911603689193726 2.4167630672454834 -0.9350563287734985 -1.1081233024597168 0.43433812260627747 -0.7622703313827515 -1.4784018993377686 0.4493582248687744 1.9438029527664185 0.7616304755210876 -1.0321046113967896 -0.6691432595252991 0.3129417300224304 -0.5612258911132812 0.10427297651767731 -1.3437509536743164 0.20195168256759644 0.12659460306167603 0.34363073110580444 -0.15487852692604065 0.7467921376228333 0.7327305674552917 -0.9159219264984131 0.05051708593964577 0.1696561723947525 -1.1559317111968994 -0.3485064208507538 0.5735599994659424 1.193816065788269 0.28863325715065 0.45804518461227417 -0.26887351274490356 -0.1579670011997223 0.9809274077415466 0.07701089978218079 0.6848935484886169 -1.2958821058273315 -1.33747136592865 -0.6096628308296204 -0.17914870381355286 -0.7356388568878174 -1.3921802043914795 -0.4183298945426941 0.43812036514282227 0.02886451780796051 0.002947278320789337 -0.6414872407913208 -0.46736064553260803 0.0658540278673172 1.3552837371826172 -1.4511902332305908 0.9282852411270142
Russia 0.7307636141777039 0.4717061221599579 -0.6795531511306763 -0.3137643337249756 0.9590668082237244 -2.5132527351379395 1.2509959936141968 0.582353949546814 1.0130724906921387 -0.3852185010910034 -0.2994333803653717 -0.15242458879947662 -0.14471076428890228 1.018726110458374 0.924409031867981 -1.7005213499069214 -1.1928362846374512 -0.4428141117095947 0.7380830645561218 0.13667218387126923 -0.24894574284553528 -0.1981152594089508 0.08091213554143906 0.33770114183425903 -1.3541723489761353 0.40869712829589844 0.37048208713531494 0.5636414289474487 -0.3796750009059906 -0.737064003944397 0.581164538860321 0.9486716985702515 -0.7801162004470825 0.11360245198011398 1.398932933807373 0.8171706795692444 -0.9070641398429871 0.39431166648864746 -0.25270602107048035 -0.6565229892730713 0.8058457970619202 1.3873130083084106 -0.4148958921432495 -0.6510670185089111 0.22907349467277527 -0.17669323086738586 0.13626116514205933 -0.7230300307273865 -0.13787750899791718 0.03772950544953346 -0.50681072473526 -0.9538370966911316 0.4245634973049164 0.3102935552597046 0.8248374462127686 -0.11518876999616623 0.8422766327857971 0.6097407341003418 0.2675538659095764 0.18572798371315002 0.10240857303142548 -0.1175461858510971 0.21132606267929077 0.6180309653282166 0.7181103229522705 -0.5652106404304504 0.7739263772964478 0.7864436507225037 -1.3744975328445435 0.9477469325065613 -2.0074124336242676 0.4534345865249634 -0.26312729716300964 -0.2715218961238861 -0.623717188835144 -0.10138773173093796 0.302496999502182 -0.6750527620315552 -0.10838143527507782 -0.9164921641349792 -1.0942071676254272 -1.6103309392929077 1.2993792295455933 0.8422584533691406 -0.44145822525024414 0.3495180904865265 1.4261889457702637 0.689099907875061 -0.9987801909446716 0.7222826480865479 -0.28013116121292114 1.0521395206451416 -0.7398102283477783 1.0402412414550781 0.43479061126708984 -0.058708544820547104 1.1191259622573853 0.2516939342021942 0.5437049865722656 -0.40079763531684875 -1.0031027793884277 -0.8600600361824036 0.3293014466762543 0.6617221832275391 0.42861902713775635 0.2391400784254074 0.8535283803939819 -0.6237277388572693 -1.124577522277832 -0.4053349494934082 -0.1117543876171112 0.972343385219574 0.6106177568435669 0.11128957569599152 0.965948760509491 0.8985204696655273 0.3536689281463623 0.35998809337615967 0.12538018822669983 -0.9352352619171143 -0.23720502853393555 0.570038914680481 0.8337712287902832 -0.36490318179130554 -0.593262255191803 -0.5581105351448059 -0.35646694898605347 0.38924166560173035 0.7159261703491211 -0.4391784369945526 -0.2243037074804306 -0.6188101172447205 0.4837625026702881 1.4228988885879517 0.47052887082099915 -0.8716310262680054 0.1313350647687912 -0.5239290595054626 -0.3069268465042114 -1.507283329963684 0.5602318644523621 -0.997186005115509 0.4742825925350189 0.8038934469223022 0.4234031140804291 -0.39101552963256836 0.4248601198196411 0.1570982038974762 -0.7357124090194702 1.3067376613616943 -2.1134421825408936 0.523127019405365 1.1440101861953735 0.6419914364814758 0.2047249972820282 0.9784954786300659 1.5025622844696045 -0.8330056667327881 0.5487729907035828 -0.20456665754318237 0.2572748363018036 -0.29265475273132324 0.9134294986724854 -1.413897156715393 -0.28891319036483765 -0.09640412777662277 0.6640713810920715 0.06176094710826874 0.2953900396823883 0.27238234877586365 1.44904625415802 1.0434905290603638 -0.11562982201576233 0.7131819128990173 0.2806780934333801 -0.2928294837474823 -0.04057640582323074 -0.6891369819641113 0.4123302400112152 -2.512979030609131 0.2738899886608124 0.7208608388900757 -0.25573596358299255 -0.2998451292514801 -0.3049452006816864 0.5519596934318542 0.242517352104187 -1.6158456802368164 -0.24470104277133942 -0.7676100730895996 -0.3219832181930542 0.7371369004249573 -0.6615641117095947 0.4368690252304077 -0.4221649467945099 -0.11613063514232635 1.1677144765853882 0.03133311867713928 0.7625564932823181 0.14724993705749512 0.33915966749191284 -1.4587887525558472 -0.49828416109085083 0.49032074213027954 0.0007853396236896515 1.122157335281372 -1.4360159635543823 0.34628236293792725 1.1190845966339111 -1.8797383308410645 -0.8525811433792114 0.9656888246536255 1.7918813228607178 -0.10905969887971878 -0.23211243748664856 -1.045376181602478 0.06467217206954956 -0.7665368914604187 -0.5492391586303711 -0.3440602123737335 1.534123182296753 0.49672389030456543 0.3668253719806671 -0.3638310730457306 -0.6253795623779297 -0.2040240615606308 -1.6480669975280762 -0.5658028721809387 0.2043246477842331 0.4249001741409302 -1.4505366086959839 -0.11529342085123062 0.6758154630661011 0.06064482405781746 -0.796908974647522 -0.6208524107933044 -0.8355485796928406 0.1148732528090477 -0.4875021278858185 1.1115413904190063 -0.35070544481277466 -0.3904915750026703 1.3833659887313843 0.23151414096355438 -0.12407217919826508 -1.165937066078186 -0.10153314471244812 0.24905726313591003 -0.2765638828277588 0.20967674255371094 0.043903276324272156 -0.32407400012016296 0.8126810789108276 0.4047611355781555 -0.6602178812026978 0.6583661437034607
London 1.2124099731445312 0.03325797617435455 -0.007288455963134766 0.22729812562465668 1.3948378562927246 -1.0256019830703735 -0.982990026473999 0.5359271764755249 0.2466849833726883 -2.076570987701416 0.4362671673297882 1.664876937866211 -0.8294174671173096 1.0074551105499268 0.61050945520401 -1.0049952268600464 -0.5071524381637573 0.8475981950759888 0.8262560367584229 0.22643713653087616 0.2807029187679291 0.2817310392856598 0.5880012512207031 -0.52789705991745 -1.1881647109985352 -1.1083259582519531 0.7491233348846436 0.344473659992218 0.02321336418390274 0.6766195297241211 0.16794313490390778 0.16651475429534912 0.5019035935401917 -0.15739339590072632 0.6038683652877808 0.5249419212341309 -0.07644054293632507 1.063226580619812 1.1659497022628784 -1.0997939109802246 0.8731968402862549 -0.12382921576499939 0.34174618124961853 -0.16374441981315613 1.0963408946990967 0.20979151129722595 0.24853406846523285 -1.3637880086898804 0.08222709596157074 -0.3627033531665802 -1.4701933860778809 -1.2140229940414429 0.47853952646255493 0.9788093566894531 0.8568074107170105 -0.7703180909156799 0.03796005994081497 -0.10045823454856873 -0.551020085811615 -0.7199623584747314 -0.4502694606781006 -0.3526671528816223 0.3308500349521637 0.06178901344537735 0.6346240043640137 -0.02254728227853775 -0.3190544545650482 1.2095118761062622 0.1265273541212082 -0.06116291135549545 -2.5015580654144287 -0.318382203578949 0.1261395961046219 0.5489156246185303 -0.5315910577774048 0.5725841522216797 -0.2889896333217621 -0.03239096701145172 0.8216152787208557 -1.0258153676986694 -0.13575997948646545 -1.0565954446792603 -0.045916348695755005 0.6330649256706238 -0.22709016501903534 -0.1486290544271469 0.883415937423706 0.997418224811554 -0.782699704170227 0.9356799125671387 -0.78147292137146 2.199031352996826 0.6619690656661987 -0.2056022584438324 0.3369327187538147 -0.593503475189209 1.1850930452346802 0.12370747327804565 -0.16356267035007477 -1.8495427370071411 -0.22010374069213867 -1.3847874402999878 0.6963101625442505 0.8387867212295532 -0.5870698094367981 1.1286356449127197 0.9530959725379944 -0.1978425234556198 -0.065791055560112 0.9073541760444641 -1.4882545471191406 -0.6562883853912354 -1.2177586555480957 -0.7483620643615723 -0.6505811214447021 0.7331112623214722 -0.6087790131568909 -0.055597931146621704 0.5699264407157898 -1.0606426000595093 -0.25172823667526245 -0.6248633861541748 0.005198374390602112 -0.522872269153595 -0.4213193953037262 -0.8640844225883484 0.5743061304092407 -0.02523740381002426 -0.6870519518852234 -0.4271467924118042 -1.518958568572998 1.5113532543182373 -0.047017261385917664 -0.3384818434715271 0.8225945234298706 -1.1013723611831665 -1.9249705076217651 -0.19618502259254456 -0.001463770866394043 -0.7133162021636963 0.7418580055236816 -0.17813894152641296 0.5539889335632324 0.3965885043144226 -0.25537198781967163 -0.7601179480552673 0.23551657795906067 0.12187934666872025 -1.3347724676132202 0.01976095139980316 -1.3179967403411865 0.743713915348053 0.8122969269752502 -0.19947823882102966 -0.03179832547903061 -0.5396671295166016 0.9728871583938599 -1.1621743440628052 -0.14299340546131134 -0.6771770715713501 1.5173554420471191 -0.5101349353790283 -0.24868127703666687 -1.3313252925872803 0.14926829934120178 -1.3817468881607056 -0.67167729139328 0.36489030718803406 0.1544800102710724 1.0647767782211304 0.47035056352615356 0.649567723274231 -0.23103071749210358 0.736924409866333 -0.4033855199813843 0.38652387261390686 -0.4984966814517975 -0.17057710886001587 -0.7571542859077454 -0.6522810459136963 -0.43461060523986816 0.01951526291668415 -0.07025516778230667 -1.9250904321670532 0.5801305174827576 1.4701037406921387 -0.5545979142189026 -0.21938133239746094 -0.6228935122489929 0.11508702486753464 -0.5779783725738525 0.05393323674798012 0.05851443484425545 1.9449094533920288 -0.13108937442302704 1.1537119150161743 0.31272220611572266 -0.23623442649841309 0.464154988527298 -0.04159019887447357 1.0595028400421143 0.10331211984157562 0.3047459125518799 0.03139190748333931 1.7497466802597046 1.148436188697815 -1.3784722089767456 0.38747796416282654 0.639399528503418 -1.2264431715011597 0.1336558759212494 0.26535898447036743 0.8567391633987427 -0.057251036167144775 -0.38835012912750244 -0.25281503796577454 -1.842491865158081 -0.7693618535995483 1.001835823059082 -0.9366424679756165 2.0862393379211426 0.30927062034606934 1.5705457925796509 0.4040848910808563 0.9848241209983826 0.9905218482017517 -0.0645022988319397 -1.0835487842559814 -1.5462963581085205 -0.4490853548049927 -0.008881643414497375 -0.3987889587879181 0.531842827796936 0.7863258123397827 -1.6706913709640503 -0.8505334258079529 -1.8531965017318726 0.5085354447364807 -0.1347184181213379 0.4366276264190674 -0.7715901136398315 -0.4861651360988617 0.5613687634468079 -1.5129984617233276 0.8595952987670898 -0.2596135139465332 0.16764327883720398 0.02354731783270836 0.37096285820007324 -0.07751063257455826 -0.5267639756202698 -1.3925293684005737 -0.41610032320022583 -0.4195472002029419 -0.35089755058288574 0.7413672804832458
China 0.20592984557151794 -1.195874571800232 0.40168094635009766 -0.11085907369852066 0.3215882182121277 -0.7354077696800232 0.3128200173377991 0.07531774789094925 0.6530672311782837 -0.3949407637119293 -0.2122001200914383 -0.15279936790466309 0.12949228286743164 1.4728131294250488 -0.5705314874649048 -1.5049384832382202 0.14941300451755524 -0.7485471963882446 -0.7523494958877563 0.749403178691864 -0.7010496854782104 0.011429540812969208 1.308851718902588 -0.012108872644603252 0.4379082918167114 -0.6980475187301636 -0.8721201419830322 0.6242338418960571 0.4790104925632477 -0.34389713406562805 0.06716063618659973 -0.5735927820205688 -1.370108723640442 -0.6029199957847595 1.8084523677825928 0.5959805250167847 -1.7444417476654053 0.6203209161758423 0.8810956478118896 -1.4313335418701172 -0.4880526065826416 -0.6909940242767334 0.5993592143058777 -0.8533375859260559 0.6051420569419861 0.7122794389724731 0.2938401997089386 -0.9594224095344543 0.5366637706756592 -0.76344895362854 -0.4639221429824829 0.09185445308685303 1.6598553657531738 -0.6140084862709045 1.2494007349014282 -0.29259613156318665 0.7010170221328735 1.3665393590927124 -0.26188498735427856 0.4884580373764038 0.11754084378480911 0.5109873414039612 -0.8573533296585083 -0.6150833964347839 2.153338670730591 -1.255604863166809 0.7275975942611694 0.9720394015312195 -0.2447042018175125 0.1278689205646515 -2.1577560901641846 -0.7796048521995544 0.1571810245513916 -0.04150350019335747 -0.4067992568016052 0.5192883014678955 0.00126218656077981 0.3906257748603821 -0.7758981585502625 -0.028536085039377213 0.12965257465839386 -0.9585230946540833 1.5103849172592163 0.12379203736782074 -0.8931983113288879 0.280936062335968 0.7497139573097229 1.4947179555892944 -0.6442291140556335 -0.12006580084562302 -0.7663519382476807 0.5952095985412598 -0.33449846506118774 -0.14402228593826294 -0.12311619520187378 -0.6293866038322449 1.1913899183273315 1.4776251316070557 0.6203672885894775 -0.6654583811759949 -2.333507537841797 -0.9414771795272827 0.7626668214797974 1.3089059591293335 -0.6785600185394287 0.05222558602690697 0.2915586829185486 -0.8250086903572083 0.1542772650718689 1.3221148252487183 0.0691722184419632 0.29222792387008667 0.7076558470726013 0.9071300029754639 0.3199405372142792 -0.5101227760314941 -1.140483021736145 -0.7684656977653503 0.5369123220443726 0.15700586140155792 0.3496992886066437 0.022386226803064346 -0.01968352496623993 -1.0570976734161377 -0.864264190196991 -0.5231920480728149 1.4891091585159302 1.076283574104309 0.7146342396736145 -0.0009687803685665131 -1.6258366107940674 0.01284105982631445 -0.1728552281856537 -0.02301337942481041 0.2710602283477783 -0.27362388372421265 0.27905136346817017 -0.33607736229896545 1.1203322410583496 -0.5576051473617554 0.12178914248943329 -0.7872347831726074 0.7928355932235718 1.3226275444030762 0.08367107808589935 -0.7039793133735657 -0.4156380891799927 0.9630954265594482 -0.7903608083724976 0.04941241815686226 -0.4735053479671478 -0.4042336344718933 0.713714599609375 -0.41816675662994385 -0.391874760389328 -1.1096421480178833 0.2182830274105072 -0.17359545826911926 1.089495301246643 -0.767700731754303 -0.03159425035119057 -0.15287259221076965 -0.04831799119710922 -1.399449110031128 -1.4918605089187622 -1.0450081825256348 -0.6624537110328674 0.39842337369918823 -0.8917626142501831 0.3625302314758301 0.9930213093757629 0.7098716497421265 0.25759226083755493 1.1508657932281494 0.04800040274858475 -0.4136851727962494 -0.08367983996868134 -0.008828042075037956 -0.5912574529647827 -0.7654369473457336 -0.7161049842834473 0.9199746251106262 -0.1585967242717743 -0.8020929098129272 0.6351794600486755 0.7483000755310059 0.24913343787193298 -0.6389745473861694 -0.7663371562957764 -0.4395965337753296 -0.6214838624000549 -0.3017023801803589 0.41606608033180237 1.5800607204437256 -0.18694983422756195 0.1998433619737625 0.700876772403717 0.4333745837211609 1.8259224891662598 0.5298358798027039 0.8618704080581665 -0.5694565176963806 -0.8313696980476379 0.8521026372909546 1.596035122871399 0.5516584515571594 -0.3492227792739868 -0.6477051973342896 0.6874380111694336 -0.40452927350997925 -0.1716189980506897 1.3779412508010864 2.343512773513794 0.9658707976341248 -0.6543467044830322 -0.9348039031028748 -0.34374499320983887 -0.655149519443512 0.4584300220012665 -0.09495628625154495 0.714924156665802 0.6985875368118286 1.1928707361221313 -0.10279049724340439 -0.8127404451370239 -0.055678073316812515 -0.1573977917432785 -0.6768880486488342 -1.052176594734192 -0.14700676500797272 -0.3733362555503845 -1.158604621887207 0.264904260635376 1.1548372507095337 0.09340666234493256 0.3809218406677246 -1.2494300603866577 0.16045883297920227 -0.30711883306503296 0.9609701633453369 -0.9025284051895142 -0.38162434101104736 0.023877114057540894 0.014707006514072418 -0.33931300044059753 -1.1289403438568115 -0.44449636340141296 -0.08528001606464386 -0.015894757583737373 1.268565058708191 -0.13613660633563995 -0.16225825250148773 0.3641037344932556 0.6898096203804016 0.26392656564712524 2.04522705078125
