10 256
9239 -0.12041036 -0.1517492 0.08767829 0.037667353 0.054614324 -0.016248599 0.09752071 0.096766256 -0.032107774 -0.059688676 -0.067894936 0.06808178 -0.060771834 0.1608991 -0.07648725 -0.06865073 0.061060492 0.012032449 0.042060442 0.051707588 0.016910676 -0.080255024 -0.06076268 -0.03700514 0.05759633 0.050961435 -0.16494344 0.14308278 0.02777231 0.0020034178 0.020482576 -0.015250147 -0.20607853 0.029643603 -0.032525178 -0.08506649 0.068347916 0.0692851 -0.027672922 0.073935166 0.08209844 -0.07921838 -0.084734865 0.14168908 -0.1003192 -0.12223717 0.2487 0.13526759 -0.007917575 -0.06989445 0.07267701 0.05595817 0.07872125 -0.114849925 -0.080266945 -0.040709518 0.11902411 0.07935394 0.16577119 -0.079267226 -0.049308084 -0.066989616 0.04853193 -0.020767208 -0.08340208 0.20938765 0.0059705847 0.10983225 -0.08448824 0.032024894 -0.010657093 0.073232755 -0.076730154 0.05726123 0.16612539 0.048960704 -0.014067054 -0.07590746 0.055977598 -0.01672854 0.20733957 0.16965605 -0.08805252 0.06670774 -0.045084402 0.13230704 0.012449586 -0.0066269273 -0.18294045 0.12112907 -0.05754997 -0.12068621 0.22721408 -0.08139954 0.047122125 0.09949009 0.11469032 0.17064239 0.027706156 0.0066973753 -0.02168659 0.01109491 0.07475556 -0.14450827 0.16088964 0.076426506 -0.010090177 0.04790072 -0.055609174 -0.06566562 0.13338539 -0.03771261 0.20839562 0.35194552 0.0064771557 -0.026375748 -0.0043682475 0.12740591 -0.06702562 -0.14227542 -0.11851028 0.052270733 -0.07558774 -0.004738857 -0.023287198 -0.051532626 -0.1343476 0.17708726 0.060890403 0.08863319 0.051336475 0.0034957035 -0.01880813 0.030995928 0.008610305 -0.07842893 0.07708061 0.02339559 -0.1970509 0.015648305 -0.025996305 -0.128805 0.057496946 0.07276446 -0.114431396 0.045486737 0.069355346 -0.017551655 0.160509 0.013694025 0.13328448 -0.12679245 0.11449294 -0.15665542 0.14386432 0.24482943 0.03557658 -0.1626899 -0.0034222149 -0.12563531 0.0023055845 0.2420089 -0.009758945 -0.07713809 0.074938044 -0.037585538 0.18853974 -0.14594659 -0.10290129 -0.09391797 0.19485074 -0.10132796 -0.05166822 0.15967794 -0.13538145 0.053304877 0.027959216 -0.04595224 -0.013045825 0.021401595 -0.14555931 0.0064471914 0.025989184 -0.053638402 0.036011763 0.1413242 0.08577252 -0.070011064 0.079551525 -0.024404997 -0.15324335 0.082197405 0.0104579525 -0.064777784 -0.13385855 -0.04731585 -0.16446093 -0.05851731 -0.10371455 -0.14006037 0.05903528 -0.23956215 -0.05518785 -0.06672038 0.100495934 0.015124207 -0.19276002 0.17491907 -0.045298867 -0.06961484 -0.09266465 0.0046993243 0.012828325 0.08908854 0.062239323 0.09336295 -0.040541198 0.074069455 0.14140198 0.18179087 -0.033945933 -0.0704298 0.017456982 -0.029848564 -0.032245204 0.0076061566 -0.07941092 -0.087708466 0.06782381 0.01609589 0.06160522 0.16691677 0.09198558 -0.070007175 -0.16271342 0.12630813 -0.06347437 -0.13571505 -0.22486739 0.01601232 0.08647339 0.043930184 -0.017731816 0.109264426 -0.12474484 -0.028334094 -0.12172768 0.1356585 -0.06552607 0.054278683 0.07007066 -0.0017730339 -0.11594489 0.035190586 0.1374354 0.034879416
14533 -0.12533224 -0.15854478 0.09204359 0.040779207 0.05804214 -0.019856753 0.09949681 0.10321506 -0.033484817 -0.05803242 -0.072339855 0.069782734 -0.06655072 0.16833135 -0.07976036 -0.068039685 0.063256904 0.01123493 0.04248164 0.05090831 0.01462495 -0.08278501 -0.06412766 -0.039957765 0.06229711 0.05003297 -0.1709602 0.15101334 0.02882522 -0.002386456 0.02054841 -0.012019391 -0.21481483 0.029731726 -0.035594743 -0.086597905 0.0686497 0.0711173 -0.026413953 0.07636526 0.088701114 -0.080996476 -0.09277493 0.14565614 -0.10448837 -0.12947355 0.25642455 0.13923694 -0.0069018467 -0.070192926 0.071059234 0.055234946 0.078448534 -0.11944832 -0.08091285 -0.041648097 0.12561232 0.08263751 0.17245565 -0.08052545 -0.052130315 -0.07013951 0.05062478 -0.017134078 -0.083585806 0.21536836 0.0063634533 0.11685097 -0.091076285 0.035488553 -0.010919532 0.07512902 -0.08298299 0.057062138 0.16982159 0.05029203 -0.014356456 -0.076031744 0.056591105 -0.020823069 0.21611525 0.17680852 -0.09384131 0.071453035 -0.04654924 0.13388066 0.010262442 -0.007919367 -0.19156669 0.12826367 -0.06341506 -0.12443973 0.23664722 -0.08434239 0.051023293 0.10333109 0.11986598 0.17640407 0.032197464 0.004168964 -0.024445912 0.0120288795 0.078627355 -0.14830443 0.16478188 0.08109875 -0.010407489 0.048355777 -0.057273258 -0.067571685 0.13800275 -0.041893452 0.21685758 0.36356542 0.0061140466 -0.026914103 -0.0057278685 0.12991835 -0.06878283 -0.14851639 -0.12545994 0.054743234 -0.0790817 -0.003319971 -0.021094384 -0.0525982 -0.14024791 0.18221706 0.063000225 0.09031594 0.053969514 0.0019892217 -0.01793163 0.033097416 0.006329877 -0.08019849 0.079565816 0.023703793 -0.20323892 0.014737516 -0.030471813 -0.13559523 0.05826352 0.07513003 -0.11989043 0.048155263 0.0694909 -0.015900495 0.16787142 0.013972983 0.13940917 -0.12940948 0.115983084 -0.16116089 0.15084137 0.25204098 0.040028226 -0.16870078 -0.003436323 -0.130839 0.00147257 0.25073597 -0.009919818 -0.080246866 0.0808823 -0.037697326 0.19282895 -0.15303658 -0.106369376 -0.09996483 0.20313324 -0.1057138 -0.05593618 0.16346152 -0.13945754 0.058241237 0.027801532 -0.04872344 -0.011094158 0.021995142 -0.1502442 0.0038761215 0.023572732 -0.05124424 0.037047245 0.14936794 0.08856631 -0.07484142 0.0821358 -0.026599849 -0.16272694 0.08852192 0.008384086 -0.071771696 -0.1403524 -0.046389077 -0.17082085 -0.060979184 -0.107495606 -0.1474994 0.063514866 -0.24818161 -0.05754133 -0.06807772 0.10279334 0.014552018 -0.19753122 0.18482059 -0.04526551 -0.074089155 -0.09668142 0.006322765 0.014216411 0.093808904 0.0665164 0.09841767 -0.039178617 0.08099913 0.14468329 0.18788813 -0.036762986 -0.07179261 0.017020423 -0.03138272 -0.03239984 0.0046405806 -0.084853314 -0.09315848 0.07128036 0.0130237695 0.060404416 0.17154777 0.09500776 -0.0706087 -0.16836667 0.13024263 -0.067809254 -0.14022195 -0.23105814 0.01651365 0.087690376 0.04662042 -0.017879574 0.1107612 -0.12931077 -0.028234681 -0.12654787 0.14413899 -0.07093079 0.05840772 0.07572559 -0.0009861492 -0.11636279 0.036825925 0.14439633 0.0353202
25391 -0.12032211 -0.15267329 0.08934981 0.03968269 0.05853704 -0.016705029 0.095659405 0.09940693 -0.031970847 -0.057712562 -0.069372825 0.06798474 -0.06587097 0.16068897 -0.07793699 -0.068311416 0.05873512 0.010539374 0.042879548 0.04983306 0.016626358 -0.079509646 -0.062226865 -0.03990079 0.05732415 0.04963903 -0.16551882 0.1451202 0.025356553 -0.00038217788 0.021522477 -0.012028325 -0.20770395 0.030047731 -0.033228565 -0.08312089 0.06906774 0.07101589 -0.02792891 0.07251609 0.08533864 -0.07658679 -0.08840781 0.14271314 -0.103476584 -0.1262489 0.24882597 0.13340463 -0.008936127 -0.06835043 0.06920649 0.053899374 0.078615665 -0.11535543 -0.0775055 -0.039357245 0.121370815 0.08160044 0.16758838 -0.07862575 -0.050088175 -0.06688786 0.050213203 -0.016125098 -0.08281085 0.2114044 0.0068029477 0.11313777 -0.08673685 0.033021014 -0.00923473 0.070457965 -0.078354016 0.057231512 0.16688639 0.048131064 -0.013121467 -0.075016394 0.054772265 -0.021482687 0.20937225 0.17385262 -0.09091505 0.069753185 -0.046702966 0.13124102 0.012240933 -0.006862812 -0.18486653 0.12417259 -0.059539534 -0.12065016 0.22911566 -0.08271449 0.050925523 0.10073698 0.11746067 0.170067 0.029638253 0.0066394056 -0.023037441 0.008657878 0.07479356 -0.14265993 0.16211382 0.07799285 -0.009703737 0.047240335 -0.05396195 -0.06664504 0.13497043 -0.041746184 0.20959385 0.35356167 0.0036483922 -0.027047696 -0.0030668774 0.12743807 -0.0668619 -0.14483058 -0.119361706 0.055200513 -0.07898807 -0.0040293527 -0.021335721 -0.05034389 -0.13715208 0.1765889 0.063801914 0.085170165 0.053666193 0.0016004911 -0.018833425 0.033033025 0.008808275 -0.079794966 0.07853342 0.02527875 -0.19810498 0.014413622 -0.029465659 -0.13199306 0.056378424 0.072077125 -0.115087934 0.044531614 0.069790594 -0.015846346 0.16207448 0.012420356 0.13464715 -0.12734188 0.111651964 -0.15744095 0.14668193 0.24671298 0.038457345 -0.16495451 -0.0039859926 -0.12315708 -0.0008388845 0.24253136 -0.009979495 -0.07883178 0.078641936 -0.037989426 0.18958661 -0.14572695 -0.10475795 -0.097178094 0.19531077 -0.1017566 -0.055017393 0.16016242 -0.1328983 0.058293145 0.028481081 -0.048374776 -0.009260395 0.023378974 -0.14719635 0.0035829684 0.023592396 -0.052138496 0.034821343 0.14319412 0.088184796 -0.071789935 0.07811584 -0.026353857 -0.15602139 0.08351529 0.009228455 -0.06799694 -0.1335488 -0.046336472 -0.16684887 -0.05700089 -0.10287964 -0.14244117 0.059321478 -0.24131152 -0.055776358 -0.06405255 0.10113454 0.015348586 -0.19481443 0.17877738 -0.045732033 -0.07266939 -0.09376401 0.0036856725 0.012483049 0.088641 0.06643073 0.095026985 -0.040063348 0.079042 0.14222723 0.18338688 -0.036162555 -0.071115255 0.018388374 -0.030700421 -0.033789903 0.0065409164 -0.07897647 -0.08750344 0.06575501 0.012810326 0.061505668 0.16550769 0.09379924 -0.070793115 -0.16356063 0.12591432 -0.06265083 -0.13590045 -0.22512037 0.014585235 0.08588646 0.0443443 -0.018108524 0.1107704 -0.12619755 -0.028646661 -0.120508656 0.13948245 -0.06762137 0.05661507 0.072985426 0.00080670574 -0.11530275 0.033793323 0.13905315 0.033064004
9317 -0.123968676 -0.15517773 0.08772357 0.040663473 0.057909906 -0.018243188 0.0975446 0.098006144 -0.033928346 -0.05931853 -0.068067424 0.06906758 -0.06332124 0.1626415 -0.078246556 -0.06702459 0.061531976 0.011140068 0.040814966 0.05091598 0.01781231 -0.07920191 -0.063556656 -0.03748621 0.058495265 0.04940263 -0.16814263 0.14557855 0.026285091 0.0009962324 0.022273026 -0.012295215 -0.2077287 0.02777734 -0.034645397 -0.08203813 0.06737791 0.07046369 -0.025580877 0.07206376 0.08278745 -0.07765308 -0.08894683 0.14357679 -0.102788836 -0.12499222 0.2504905 0.13665244 -0.008065412 -0.068844095 0.07201062 0.054406516 0.07904199 -0.11235727 -0.08067204 -0.039040107 0.12246822 0.08149571 0.16642116 -0.077939026 -0.05297102 -0.06757556 0.051084653 -0.017184807 -0.084412046 0.2110397 0.0044519827 0.11100203 -0.087514356 0.033465527 -0.008467771 0.07284102 -0.07887802 0.055399057 0.16686985 0.050349522 -0.015767738 -0.07770165 0.057083752 -0.016640356 0.20759057 0.17254613 -0.091144174 0.06619786 -0.045182522 0.13359675 0.009641143 -0.004897801 -0.1860865 0.12345111 -0.061390642 -0.121719345 0.22879125 -0.078638315 0.050591007 0.09919867 0.1159039 0.17151245 0.02804703 0.005810633 -0.023404948 0.01145279 0.07558427 -0.14525244 0.16018756 0.07953779 -0.008180442 0.049568508 -0.055784512 -0.06268205 0.13175566 -0.03879975 0.20879255 0.3557615 0.0067778896 -0.02741542 -0.0034918704 0.12575935 -0.06577236 -0.14171816 -0.12191768 0.054203298 -0.07864435 -0.001341412 -0.022228714 -0.049183425 -0.13696113 0.17826843 0.06082634 0.08727557 0.05358019 0.0046679964 -0.016060349 0.02985962 0.0070975656 -0.07724855 0.076629885 0.026251428 -0.19942895 0.015348297 -0.028926041 -0.13224177 0.056831513 0.074548535 -0.1164189 0.04620266 0.07074454 -0.01910147 0.1640355 0.013481094 0.13331108 -0.1270531 0.11472616 -0.15937926 0.14732614 0.2475503 0.03676486 -0.16266292 -0.004275766 -0.12689207 0.002699159 0.24365045 -0.012505873 -0.07696532 0.07956522 -0.037001573 0.1868537 -0.14869896 -0.103544876 -0.097832985 0.1974282 -0.10221431 -0.05299924 0.16078952 -0.1358809 0.05520249 0.029105958 -0.044821925 -0.014609792 0.024255589 -0.14449026 0.0047890493 0.025365902 -0.050410245 0.03564883 0.14473405 0.088124156 -0.07189134 0.079738915 -0.024617001 -0.1562945 0.08388033 0.010903566 -0.06868366 -0.13628756 -0.046834953 -0.16284452 -0.055511612 -0.10338895 -0.14173782 0.060383607 -0.24200809 -0.05792969 -0.06657929 0.1017495 0.016992403 -0.19427301 0.17916913 -0.04480744 -0.07102626 -0.09302908 0.006362092 0.011346369 0.09046804 0.06451707 0.09623174 -0.040981982 0.07669265 0.14095254 0.18457629 -0.035883013 -0.0689498 0.016170766 -0.028782018 -0.034058675 0.004929204 -0.08211007 -0.08868562 0.066844404 0.01651852 0.06201512 0.16860096 0.09213643 -0.0706735 -0.1610496 0.12886275 -0.06395671 -0.13564378 -0.2266285 0.017044013 0.083629176 0.04578412 -0.018955281 0.11106608 -0.1272851 -0.029453654 -0.12069151 0.13979553 -0.06523086 0.0557214 0.070415996 -0.0024035908 -0.11582185 0.034157045 0.13988306 0.032557692
11887 -0.12462725 -0.15731797 0.088652596 0.040145483 0.05632396 -0.0196162 0.09808243 0.09826377 -0.035740986 -0.061143097 -0.07039103 0.067866325 -0.06474943 0.16288185 -0.07868031 -0.07039332 0.059465006 0.013432402 0.044772334 0.052535616 0.016124807 -0.079430774 -0.06293969 -0.040309764 0.05790246 0.052297402 -0.17124063 0.14845331 0.028120195 -6.489121e-05 0.020238664 -0.015568483 -0.20995931 0.030382171 -0.03673505 -0.084460676 0.07077079 0.07170088 -0.027823025 0.07539947 0.08476156 -0.08000689 -0.09007766 0.14616507 -0.10535051 -0.12521985 0.2557719 0.13790031 -0.008737635 -0.07036722 0.07241558 0.058058154 0.078705385 -0.115724996 -0.081884995 -0.04159108 0.12541702 0.08364473 0.17129257 -0.078790836 -0.05368678 -0.06696174 0.05258837 -0.019459588 -0.08367423 0.21462668 0.003528921 0.115017064 -0.08754803 0.034484897 -0.010693771 0.0728185 -0.08153569 0.05735625 0.16956407 0.05217307 -0.016028447 -0.07793486 0.054531816 -0.020074574 0.2107423 0.17584807 -0.089598626 0.067979015 -0.04434848 0.13492317 0.011922465 -0.007091065 -0.18863302 0.12359543 -0.060443297 -0.1250561 0.2330506 -0.08276577 0.052140277 0.10240215 0.11915178 0.17536408 0.031052833 0.006726376 -0.024276586 0.00927556 0.079417974 -0.14797872 0.16321994 0.07986002 -0.010204853 0.04889754 -0.056687508 -0.064030804 0.13646634 -0.041343827 0.21416369 0.36137366 0.005356893 -0.024993634 -0.005756556 0.13024192 -0.06631655 -0.14565925 -0.12481002 0.055743136 -0.08107355 -0.0031194838 -0.023981506 -0.051441763 -0.13886611 0.18189718 0.06401723 0.08950039 0.05494102 0.0018457476 -0.017184256 0.031917628 0.008323181 -0.08013095 0.080911964 0.025873518 -0.2027163 0.014406655 -0.028277073 -0.13129638 0.05910605 0.07521353 -0.116347216 0.0469868 0.070901394 -0.0166043 0.16597912 0.014957461 0.13879004 -0.13125637 0.11702595 -0.16166553 0.14654502 0.25015095 0.039821684 -0.16652933 -0.0025764713 -0.12913013 0.00033788933 0.24657151 -0.011566964 -0.07811263 0.07879773 -0.03582195 0.19258082 -0.15105489 -0.1072895 -0.09936566 0.19981429 -0.10638343 -0.056064155 0.16209914 -0.1379183 0.055545993 0.028712707 -0.04747958 -0.011155799 0.023376605 -0.14723742 0.0032126748 0.024166094 -0.054816704 0.038075525 0.1438903 0.089702554 -0.070427425 0.08251299 -0.026499918 -0.16044065 0.08603204 0.008840214 -0.068607934 -0.13688245 -0.048661157 -0.16959694 -0.05653953 -0.10527049 -0.14333136 0.062257674 -0.24678208 -0.056416288 -0.06795214 0.10269253 0.0147694005 -0.19779487 0.18084139 -0.04365763 -0.07274982 -0.092228994 0.006804013 0.011891365 0.09209267 0.06746419 0.097324066 -0.039702173 0.07861083 0.14366637 0.18817368 -0.035815094 -0.07176194 0.017463459 -0.032410923 -0.03301685 0.0066563305 -0.083399214 -0.08969338 0.06833831 0.014687051 0.06107567 0.17227803 0.09379283 -0.072933495 -0.16528013 0.12851715 -0.06585274 -0.13704264 -0.22828743 0.014943521 0.08861278 0.043987717 -0.019159177 0.11123481 -0.1295678 -0.030904224 -0.12322608 0.1422625 -0.068962075 0.05825978 0.07330031 -0.0030738255 -0.11915376 0.03708459 0.14363843 0.03405892
5211 -0.12306785 -0.15444194 0.08986898 0.037251227 0.05673967 -0.018647242 0.09719834 0.097953044 -0.033541325 -0.057752598 -0.06909599 0.06976457 -0.062085927 0.16136721 -0.07791822 -0.069822885 0.059509862 0.011223915 0.04328142 0.051725104 0.0150556015 -0.07987454 -0.059841555 -0.036354356 0.05867747 0.04983857 -0.16690122 0.14514823 0.025170097 -0.00033467743 0.019098649 -0.014182715 -0.20853715 0.029283263 -0.0365832 -0.08492392 0.06606455 0.07148445 -0.025012076 0.07170176 0.08601349 -0.07943531 -0.08747699 0.14035907 -0.10355066 -0.12523864 0.25102332 0.13275532 -0.008166041 -0.069937736 0.0717967 0.057166792 0.07947171 -0.11642191 -0.07871961 -0.038644213 0.12321285 0.081572086 0.16743444 -0.07926599 -0.052136555 -0.068552956 0.048297342 -0.018919041 -0.08236519 0.20970011 0.004009069 0.112382144 -0.084489256 0.033346385 -0.009300811 0.07353005 -0.07741736 0.05617414 0.16546187 0.0507712 -0.01493801 -0.07606104 0.056947872 -0.017773196 0.20751451 0.17147262 -0.08972356 0.06640952 -0.045819394 0.13092066 0.00964157 -0.0058012963 -0.18394919 0.12391399 -0.06106499 -0.122798264 0.22972885 -0.08133731 0.048362263 0.09913067 0.11762339 0.16878663 0.028901184 0.0061054756 -0.023378292 0.008575644 0.07752784 -0.14326821 0.16168182 0.079729535 -0.011714698 0.04673956 -0.053577334 -0.06595065 0.1319352 -0.041903604 0.2084072 0.35458267 0.0056946664 -0.025729263 -0.004265436 0.12668297 -0.06678991 -0.14219786 -0.11977362 0.054156184 -0.07844964 -0.002977477 -0.02001925 -0.049200423 -0.13684773 0.17790312 0.06292855 0.08871702 0.05295461 0.001598456 -0.016455982 0.03309106 0.006350621 -0.07777132 0.07953544 0.024368446 -0.19896182 0.01370222 -0.02767644 -0.13059632 0.05846671 0.07196781 -0.11705209 0.043595284 0.06735413 -0.015801711 0.16325572 0.01465261 0.13550234 -0.12693264 0.11391346 -0.15862681 0.1451373 0.24652995 0.0395944 -0.1655611 -0.0024914548 -0.12638062 0.0012817008 0.2444207 -0.008283845 -0.07771315 0.078383856 -0.034797043 0.18937999 -0.14855158 -0.10373843 -0.09524798 0.19708851 -0.10436786 -0.05323256 0.16028897 -0.13551682 0.057277363 0.030343108 -0.046906732 -0.012836053 0.021468544 -0.14514916 0.005633067 0.025646336 -0.052276157 0.037238725 0.14436533 0.08855633 -0.07140062 0.08135041 -0.027022736 -0.15793878 0.08638417 0.008316468 -0.06743457 -0.13325866 -0.04496131 -0.16748677 -0.05836307 -0.10267357 -0.14094925 0.060667034 -0.24214952 -0.057741266 -0.06551607 0.10199896 0.016505972 -0.19477482 0.17975903 -0.0430549 -0.07088512 -0.09237734 0.0056607374 0.01385438 0.087472424 0.06533827 0.09306946 -0.04095326 0.07744066 0.14073527 0.18438758 -0.03659855 -0.072150946 0.01589588 -0.028592173 -0.03443344 0.005539566 -0.08095337 -0.087958224 0.06754806 0.014631595 0.05932934 0.16831996 0.090348214 -0.07122231 -0.16391242 0.12804538 -0.065088406 -0.13632056 -0.22652444 0.015577786 0.087141514 0.043935858 -0.016575826 0.10902485 -0.12580188 -0.02928782 -0.122612104 0.13853878 -0.06669322 0.055124987 0.07056069 0.0012457706 -0.11472295 0.035815008 0.14160079 0.032370344
9508 -0.12052778 -0.15034305 0.08979852 0.037356887 0.058611196 -0.015902584 0.09279832 0.09762542 -0.034642532 -0.05581312 -0.06839049 0.068836726 -0.064060375 0.16027649 -0.07480226 -0.06728486 0.05849508 0.010704903 0.040200215 0.051974777 0.01598217 -0.07803845 -0.06241166 -0.03685161 0.05925348 0.05033176 -0.1641807 0.14436664 0.025643297 -0.000818645 0.021650027 -0.014152905 -0.20435615 0.030405395 -0.036112837 -0.08450338 0.06530459 0.06817214 -0.026368715 0.072902106 0.085582 -0.07806856 -0.085045025 0.13978082 -0.099138916 -0.124163054 0.2473172 0.13294041 -0.006461208 -0.06474775 0.06904659 0.05609138 0.07506102 -0.11465038 -0.07840033 -0.037477184 0.11940049 0.080936395 0.16390556 -0.07687201 -0.05094873 -0.066242136 0.0511638 -0.01877898 -0.08224258 0.2079077 0.0044176327 0.11013832 -0.08280067 0.034885507 -0.009838863 0.07266911 -0.07912626 0.057366177 0.1629527 0.048593603 -0.015435381 -0.075162694 0.054001104 -0.02021385 0.20598537 0.16986279 -0.08829079 0.06722025 -0.046337795 0.12995018 0.011627488 -0.0085189175 -0.18107681 0.1220117 -0.057925466 -0.11965763 0.22523436 -0.07882863 0.049788233 0.09973986 0.115060434 0.16864184 0.030279359 0.003827115 -0.020751374 0.0077072005 0.07477603 -0.13938394 0.15936974 0.079633236 -0.010290571 0.047177687 -0.05545286 -0.06586851 0.1320609 -0.037897274 0.20692822 0.34761763 0.00586832 -0.023969203 -0.0041732322 0.12559417 -0.063024014 -0.14066224 -0.12008464 0.05441439 -0.07575403 -0.004194679 -0.021051027 -0.05119989 -0.13538961 0.17551838 0.061890773 0.08506012 0.05298483 0.0012311061 -0.01734059 0.033043865 0.006973197 -0.07574209 0.07804261 0.023109695 -0.19401108 0.0123650385 -0.02899249 -0.13040137 0.0543721 0.07073995 -0.11478705 0.042622957 0.06855511 -0.01670028 0.16030374 0.01130328 0.13355398 -0.124271855 0.11274062 -0.15472825 0.14443299 0.2416346 0.037747484 -0.16063352 -0.005997092 -0.121479765 -0.0011974364 0.23861016 -0.009122553 -0.07640864 0.07549141 -0.035837863 0.18656291 -0.14574398 -0.10074563 -0.09581867 0.19189315 -0.100990176 -0.05432339 0.15725975 -0.13190275 0.056689367 0.028251652 -0.04854736 -0.009898405 0.023898039 -0.14441657 0.0064435084 0.023509962 -0.04973898 0.035377454 0.14140874 0.08559906 -0.071436025 0.07975299 -0.027665997 -0.15660608 0.08552393 0.0070480136 -0.068049744 -0.13048816 -0.044533223 -0.16415243 -0.058376502 -0.10159968 -0.1404006 0.058576465 -0.23825966 -0.05528154 -0.06471838 0.101336405 0.0125805745 -0.19102274 0.17783171 -0.044552 -0.07154385 -0.09068428 0.0033599369 0.012434623 0.08813701 0.062224258 0.09132011 -0.03947435 0.07629156 0.14025086 0.1793135 -0.035945997 -0.07026487 0.016953781 -0.029563334 -0.031602576 0.007529407 -0.077125974 -0.08929783 0.066616446 0.013860552 0.060450003 0.16563563 0.09015334 -0.069550976 -0.15969606 0.12541309 -0.06474984 -0.1341087 -0.22275195 0.016961314 0.08545252 0.04295763 -0.015668169 0.10841231 -0.1240755 -0.029395426 -0.11879482 0.13893194 -0.06664516 0.053794343 0.07217027 0.0015808092 -0.112279475 0.03463213 0.13900974 0.032131303
17867 -0.12749808 -0.1556648 0.09147711 0.042354036 0.054598697 -0.018269774 0.102199085 0.10251448 -0.03372171 -0.057764966 -0.06751891 0.0666078 -0.06571074 0.16653349 -0.07717601 -0.071974374 0.06319141 0.009335931 0.044475168 0.049072303 0.019967776 -0.08475931 -0.06305038 -0.04018633 0.062984236 0.049554456 -0.17123426 0.15075669 0.025653046 0.0018451634 0.020905511 -0.016200945 -0.21210976 0.030013345 -0.03194151 -0.08518369 0.06766727 0.073587276 -0.027445888 0.071805544 0.08326219 -0.07692433 -0.086570755 0.14304365 -0.10372947 -0.12279563 0.2562778 0.1386661 -0.008059443 -0.07183401 0.07504531 0.05633918 0.08007649 -0.11577339 -0.07885713 -0.037479002 0.121301234 0.08224302 0.16863497 -0.083606176 -0.05162944 -0.065163486 0.049192633 -0.02115074 -0.08664907 0.21414293 0.0044606226 0.11698362 -0.08605012 0.034554437 -0.007868512 0.07762075 -0.08206431 0.05853122 0.1698291 0.05193044 -0.015078251 -0.08064528 0.05547273 -0.020330206 0.20811889 0.17505829 -0.09082868 0.067543596 -0.043093264 0.13376734 0.009317636 -0.0045110653 -0.1894156 0.12523751 -0.063776255 -0.12708846 0.23492981 -0.078785285 0.051236063 0.09862234 0.11845476 0.17430729 0.027605956 0.009079689 -0.023342235 0.0123054525 0.08064971 -0.14833614 0.16261934 0.07894062 -0.009223029 0.047095094 -0.058774047 -0.06565048 0.13247558 -0.037397925 0.21370462 0.36306685 0.005332158 -0.02801814 -0.0010134224 0.13126817 -0.069077894 -0.1474452 -0.12495159 0.05289347 -0.07718404 -0.002705186 -0.025502253 -0.053596362 -0.1410079 0.17942205 0.05966724 0.09298268 0.054804716 0.0052699815 -0.016608775 0.028498482 0.008379627 -0.07740075 0.080681026 0.025342021 -0.19986999 0.012765011 -0.026577804 -0.13470943 0.060970496 0.07535883 -0.11598625 0.0429086 0.07081048 -0.019475332 0.1663421 0.014532351 0.14014976 -0.13142475 0.118770726 -0.16267626 0.15134147 0.25106475 0.040241208 -0.16522677 -0.001265994 -0.12788416 -0.0014787964 0.24628519 -0.011213946 -0.08189009 0.08119886 -0.04098884 0.1930784 -0.1498239 -0.10502972 -0.09831552 0.19870368 -0.10701051 -0.052506007 0.1618548 -0.13781092 0.055975817 0.029185241 -0.047873806 -0.016426964 0.024012472 -0.14921163 0.00729167 0.025183324 -0.051036414 0.03770755 0.1478794 0.08989575 -0.06991036 0.07971697 -0.027656425 -0.15846503 0.086731635 0.0059415926 -0.06802799 -0.13997625 -0.04460498 -0.1651431 -0.058709092 -0.108830385 -0.13980913 0.06456639 -0.24609512 -0.058798186 -0.066786356 0.105543315 0.018426228 -0.19800514 0.18410794 -0.046268534 -0.07122254 -0.090973325 0.0035741162 0.012706655 0.08898893 0.06627399 0.09656138 -0.037242178 0.07468561 0.14568324 0.1853021 -0.037511654 -0.07387855 0.013558354 -0.031808253 -0.032766506 0.0062865135 -0.08114084 -0.090878986 0.066169485 0.017911218 0.060615927 0.17390634 0.09245252 -0.072544225 -0.16858411 0.13253267 -0.06348189 -0.13900474 -0.23002201 0.013960704 0.085507736 0.045445167 -0.02059414 0.10939719 -0.1293313 -0.026773896 -0.1222892 0.14289701 -0.06690438 0.055107325 0.07487296 -0.0045389934 -0.11839853 0.038940895 0.1419582 0.03768868
10597 -0.12698029 -0.15945801 0.091910146 0.04192978 0.059514098 -0.017853172 0.09903386 0.10322371 -0.036775626 -0.05960316 -0.06856224 0.06955929 -0.06417 0.16483569 -0.079458684 -0.06939198 0.06153049 0.013416444 0.042483114 0.050590698 0.016126761 -0.08114706 -0.06518506 -0.03821394 0.059279013 0.049643725 -0.17351948 0.15157713 0.027968153 -0.0009870647 0.022731537 -0.012882121 -0.2116518 0.03222571 -0.03607017 -0.0889954 0.0701212 0.07432985 -0.029839627 0.07511009 0.084897876 -0.081964895 -0.09195614 0.1479202 -0.10686341 -0.12831655 0.2598853 0.14070635 -0.009532881 -0.071112595 0.074804954 0.059326053 0.079616725 -0.11709433 -0.08162367 -0.039898895 0.12708896 0.084535375 0.1723294 -0.08077826 -0.05524677 -0.066775985 0.052729923 -0.02167259 -0.08464815 0.2158933 0.006847773 0.11707149 -0.09002215 0.036271203 -0.0107595455 0.07724068 -0.0804277 0.057213314 0.17275073 0.05245223 -0.014044054 -0.07875126 0.058505233 -0.018620728 0.2161541 0.17579624 -0.09354564 0.06784334 -0.044815224 0.13643865 0.011648232 -0.0088399565 -0.19016822 0.12709956 -0.062009238 -0.12584555 0.23374891 -0.08187658 0.049434435 0.10052352 0.12200356 0.17497751 0.028692976 0.0071784463 -0.024054032 0.011258113 0.080240145 -0.15001273 0.16649607 0.082817666 -0.009432035 0.050265178 -0.055412136 -0.068088554 0.13575503 -0.040729433 0.21735847 0.36694726 0.008025699 -0.025046086 -0.006087596 0.13242213 -0.06978333 -0.14680824 -0.12620243 0.055678144 -0.08182662 -0.0035762724 -0.021466833 -0.050740797 -0.13929035 0.18264163 0.063625135 0.09022852 0.054193955 0.0021879424 -0.017663613 0.031187952 0.008393618 -0.07985841 0.08108028 0.027588906 -0.2036822 0.01351304 -0.027680961 -0.1349358 0.060376424 0.07688986 -0.11800599 0.047062024 0.06918199 -0.015491023 0.16990614 0.012332905 0.14120917 -0.1329003 0.11808186 -0.16144164 0.15018293 0.2529277 0.03755932 -0.16885129 -0.005157955 -0.12837267 2.8654831e-05 0.25091743 -0.011638171 -0.08067984 0.079335496 -0.038628623 0.19488622 -0.15254936 -0.10757612 -0.09956675 0.2022942 -0.10439873 -0.056344926 0.16500835 -0.14064531 0.0589276 0.0285076 -0.050147515 -0.011837935 0.023087462 -0.14874025 0.004584112 0.0277863 -0.055998676 0.036867335 0.14902337 0.09012172 -0.071391925 0.08106132 -0.028534027 -0.16294907 0.08579322 0.009128076 -0.067877375 -0.1372445 -0.048202213 -0.1710387 -0.059314813 -0.108042255 -0.14393198 0.06122373 -0.24698737 -0.059735496 -0.06853154 0.10499331 0.0139693245 -0.20168334 0.18262377 -0.046842285 -0.07540857 -0.093217336 0.004668846 0.013636242 0.0921644 0.06441955 0.09681878 -0.041502845 0.07737694 0.14465445 0.18893272 -0.035728015 -0.07306083 0.018327745 -0.03183647 -0.035448413 0.0047758347 -0.084662855 -0.09231872 0.07085516 0.014706737 0.061003305 0.17248388 0.09413342 -0.075111985 -0.16989912 0.1307281 -0.065789506 -0.13902606 -0.23370343 0.013978959 0.08961135 0.043605506 -0.019708857 0.114156134 -0.12965783 -0.030476764 -0.12369233 0.14422105 -0.06922844 0.058982264 0.07317213 -0.002314561 -0.12065188 0.035973266 0.14445794 0.037039746
5405 -0.123458914 -0.15475528 0.09132218 0.038785417 0.059697755 -0.020383392 0.09628027 0.10034785 -0.033994667 -0.056859933 -0.06623766 0.067238115 -0.06497592 0.16354603 -0.07776457 -0.06834646 0.057978943 0.0115712155 0.044247054 0.05275589 0.015141632 -0.079385094 -0.060458545 -0.040232528 0.05932602 0.049038928 -0.16623983 0.14398518 0.0279884 -0.0017324445 0.021074139 -0.015714591 -0.2061796 0.030906983 -0.035145603 -0.08339554 0.068916254 0.07223807 -0.025896976 0.0746187 0.085853815 -0.076260455 -0.090496674 0.14074914 -0.103435434 -0.12690389 0.24903308 0.13253371 -0.008324419 -0.06546306 0.07130875 0.05655061 0.075490214 -0.11408002 -0.08046241 -0.040252425 0.12271586 0.083078384 0.16613157 -0.07642886 -0.05380739 -0.067353584 0.05041796 -0.017460788 -0.083838634 0.21128774 0.00742691 0.11152673 -0.08825967 0.03586633 -0.010341679 0.07124261 -0.081625156 0.058366887 0.1668615 0.04953139 -0.015211816 -0.074307345 0.05278569 -0.020978717 0.20977503 0.17424574 -0.087484084 0.069605425 -0.044857334 0.13160105 0.01239875 -0.0066550937 -0.18534763 0.121259704 -0.061094068 -0.120706216 0.2292702 -0.08182485 0.04903632 0.10174084 0.11846618 0.17180373 0.028747382 0.0063366718 -0.024035748 0.009889372 0.07461521 -0.1450487 0.1622881 0.081031285 -0.009804632 0.04983713 -0.057214864 -0.064155675 0.13475241 -0.041987993 0.2095673 0.35483032 0.0036425658 -0.024067903 -0.0044361036 0.12696233 -0.06391585 -0.144492 -0.123507 0.052164484 -0.08010395 -0.0038363351 -0.021143205 -0.0498857 -0.13808475 0.17840654 0.06367375 0.0842551 0.052449204 0.0015958223 -0.018366318 0.03423927 0.0064001116 -0.079999834 0.08082305 0.023900809 -0.1994357 0.012404497 -0.028542884 -0.13065127 0.054453444 0.0726903 -0.11338369 0.04538759 0.066820376 -0.01838936 0.16521248 0.015163763 0.1330505 -0.12519416 0.11217292 -0.15686217 0.14834656 0.24744096 0.037069377 -0.16559392 -0.0058738445 -0.12411646 0.0011081551 0.24301678 -0.011113952 -0.078615256 0.079261385 -0.03573557 0.18991247 -0.14554647 -0.10359613 -0.098485254 0.19787419 -0.103940666 -0.0559172 0.15995526 -0.1318739 0.059128452 0.02976679 -0.04697086 -0.009339539 0.02098538 -0.14654441 0.0035037806 0.025888672 -0.05250551 0.037357163 0.14332889 0.088978045 -0.0723874 0.080714405 -0.027185393 -0.15778436 0.08707677 0.01012263 -0.06957221 -0.13607685 -0.0477717 -0.16722214 -0.059329662 -0.10073202 -0.14053752 0.06070608 -0.24043669 -0.05411147 -0.06603045 0.103793085 0.013993083 -0.19572775 0.18105535 -0.04653145 -0.069344565 -0.091945894 0.0058327923 0.01019389 0.087618016 0.06664425 0.09544482 -0.03775756 0.07819946 0.14120007 0.1838846 -0.037292242 -0.070814945 0.014473085 -0.030199483 -0.035529375 0.005406824 -0.08029759 -0.08970464 0.067989156 0.014589187 0.058757696 0.16657455 0.09256463 -0.069479354 -0.16172779 0.12577945 -0.063673824 -0.13752101 -0.22548051 0.017496478 0.08521305 0.04201749 -0.01925083 0.10813183 -0.1260101 -0.028981056 -0.12170101 0.142313 -0.069458805 0.058226813 0.07182456 0.00073559186 -0.11394158 0.03537534 0.14176443 0.034094907
